{
  "version": "1.0",
  "architecture": [3, 32, 32, 16, 3],
  "learningRate": 0.001,
  "parameters": 1763,
  "layers": [
    {
      "neurons": [
        {
          "bias": -0.4858330978719735,
          "weights": [0.7719835702942534, 0.8206699035951609, -0.4712404385913684]
        },
        {
          "bias": 0.07314648610038356,
          "weights": [-4.358889394892943, 0.10882554162248892, 0.039304574437564535]
        },
        {
          "bias": 0.02004371202929252,
          "weights": [-0.7374648185490984, -0.9435388809332287, -0.09973329120963186]
        },
        {
          "bias": -0.0040971905907361975,
          "weights": [2.1206363319425368, 0.19362914813959245, 0.023014163206373058]
        },
        {
          "bias": -0.3073934723551382,
          "weights": [1.0338769300721231, -0.46435251506048936, -1.055970576423331]
        },
        {
          "bias": -0.5742555541222548,
          "weights": [0.6533840316496762, 0.022474887958988964, 0.6250749799706496]
        },
        {
          "bias": -0.8537047957139757,
          "weights": [-1.2040664934365215, 0.5494883311213035, 1.0325269664267052]
        },
        {
          "bias": -0.6807546338909877,
          "weights": [1.138287478280597, -0.010690799224982327, 0.9812187116264444]
        },
        {
          "bias": -0.06907323221945486,
          "weights": [-0.12601066316185391, 0.10647439765764219, 0.46664140980713803]
        },
        {
          "bias": -0.26042359092360795,
          "weights": [-1.3094308296101014, -0.09820028925534519, -1.2407997035262956]
        },
        {
          "bias": 0.06336685270098764,
          "weights": [0.46607081821123914, -0.15451489670758367, -0.9619345186649191]
        },
        {
          "bias": -0.05986627409151821,
          "weights": [-0.39539113707871876, -1.7236365904018807, -0.5284344584869971]
        },
        {
          "bias": -0.08629053272213716,
          "weights": [-0.45502573922969963, 1.077239876132961, -0.06755562098327261]
        },
        {
          "bias": -0.851059988443913,
          "weights": [1.0573811342911499, -0.3422846368173458, -0.9082064110064121]
        },
        {
          "bias": -0.5506543460837399,
          "weights": [-0.8304074814784719, -0.6465384011739443, 0.802900016054162]
        },
        {
          "bias": -0.07291085233797719,
          "weights": [-0.03894814143670557, -0.7449484117537624, 0.41607688897236106]
        },
        {
          "bias": -0.3072357851872092,
          "weights": [0.9881749785571325, -0.11452047512688376, 0.49623282053206047]
        },
        {
          "bias": 0.061760850748242876,
          "weights": [-4.709541884538627, 0.2644813993166175, -0.0436326393609671]
        },
        {
          "bias": 0.023088319863067273,
          "weights": [1.5904898668264398, -0.48099157928573044, 0.08317302786268334]
        },
        {
          "bias": -0.6812526932694667,
          "weights": [0.7481557068182328, -0.034700987821743814, 0.7159427129556445]
        },
        {
          "bias": -0.8410052063038277,
          "weights": [1.7162584472665872, -0.30121284782965413, -1.1973669875840995]
        },
        {
          "bias": -0.27362151538027846,
          "weights": [0.48533740278509646, 0.631340705969043, -0.6406714044807392]
        },
        {
          "bias": -0.4504326697772068,
          "weights": [-0.9370961075188784, -0.1257839941995827, -0.7219146042696636]
        },
        {
          "bias": 0.01358826229758832,
          "weights": [-0.5417308703208596, 1.0459824448243737, -0.5924924402649178]
        },
        {
          "bias": -0.7403059922508581,
          "weights": [0.9956463429607816, -0.07137349402594391, 0.800214463574343]
        },
        {
          "bias": -0.07517806272805679,
          "weights": [1.9082654370627943, 0.13577252503462353, 0.1069248032786577]
        },
        {
          "bias": -0.9579025792500373,
          "weights": [0.7061350650937845, 0.034336569082789925, 0.7370079490301636]
        },
        {
          "bias": -0.7353964454231459,
          "weights": [-1.4528262941537358, 0.05062557078562533, -1.3062697735171769]
        },
        {
          "bias": 0.003448879202603396,
          "weights": [-4.215848822984446, -0.41919170296499153, -0.0599938088146673]
        },
        {
          "bias": -0.591355080342749,
          "weights": [0.5365844977009002, -0.028008191760986588, 0.5623672246785059]
        },
        {
          "bias": -0.21396273886304729,
          "weights": [-0.6395791597011209, 0.30289522900541366, 0.48931735967625983]
        },
        {
          "bias": -0.8071569953094501,
          "weights": [0.5554604934883376, 0.08773393932132333, 0.642100188339418]
        }
      ]
    },
    {
      "neurons": [
        {
          "bias": 0.07236093613290939,
          "weights": [-1.020201197183313, 0.06024911697087806, 0.44294189135757905, -2.169775276951183, -0.31835421102753764, 0.24000827878598607, -0.4697927224899169, -0.7693767195173888, -2.4046590390909808, 0.2581253534736262, 0.11684018485010952, 0.24101171696784918, -0.0936362992273244, -0.4246065584332367, -1.0395332798967, -1.530529832591935, -0.16939718574893148, 0.04414795753046749, -2.45812660338361, 0.31818281343109583, -0.7858677228326428, -1.2574474917141722, 0.2013597375693984, -0.08589179327591666, 0.1741326264944812, -0.37833006617717835, -0.17998818942895023, 0.23771096263925237, 0.01668546608811409, 0.1729557960092971, -0.9694339737080045, -0.3123484836534351]
        },
        {
          "bias": -0.0031803303289654134,
          "weights": [0.8106461753365427, 0.06492996334110433, -0.5454772054827682, -0.17679288808696675, 0.4623439685314477, -1.4483327831203163, 0.46790741689112025, -0.5577997616446677, -0.05028485583562675, -0.9317920431556044, -0.17547361447281887, -0.16460735308288807, 0.3208572563348407, 0.8028221567118928, 0.23511200810106556, 0.23965786992733648, -0.28099870295737783, 0.43265300024363246, 0.13644857430135365, -1.0265588890708104, 0.6720878561128744, 0.4948265620614709, -1.5811219575093873, 0.1453803381055898, -1.4073832342059294, -0.2523154080241943, -0.29980298187166665, -1.151071840188714, -0.2825175186448178, -0.19195484730979853, 0.10833403786311835, -0.05868527154652132]
        },
        {
          "bias": 0.22671945680003264,
          "weights": [-1.1216608569191855, -0.1637764286258501, -0.01621993629984196, -0.06194938176495194, -1.9700776086024268, 0.12376178269309476, -0.28177538876239844, 0.08074982460812878, 0.008387271239153383, -0.686926561113739, -1.4795978607987683, -0.14816161556443258, -0.8291035470356297, -0.6539928893034855, 0.059274835260965886, 0.10628300697880126, -0.040459431504370515, -0.0782561321513688, 0.04430563549552893, 0.005047909647494575, -0.8153268903777668, -0.996596781867751, 0.19727764908931347, -2.6694918770649645, 0.15724696422234305, -0.0625615557732781, -0.20210142638620174, -0.7888127207732288, -0.06853600788245662, -0.5498681671948742, 0.27240023158187754, 0.3595537673847415]
        },
        {
          "bias": -0.3004898738924092,
          "weights": [-0.24805780749597983, 0.002848030473421119, 0.20582508593798554, -0.6459407777307415, -0.04957174366048991, -1.2154120615337203, 0.394770190349262, -1.116745749866714, 0.9118162575093606, -0.6755673403395662, -0.7464892775423344, 0.014398935010927857, -0.0505642986889493, 0.08001462365600852, 0.011740371513930262, 0.49157369249837535, -0.9005736383783811, 0.07777057096420963, -0.7134431265337826, -0.09463750349034594, 0.16279139638403312, -0.19659048658867956, -0.6098183574856517, -0.05518923009891621, -0.5992403210311477, -0.8372857290587504, 0.11499676979224377, -0.9428772110341287, 0.14847648660033055, 0.11526567885700126, 0.6275030288747183, -0.2370417470590856]
        },
        {
          "bias": 0.26068768746371523,
          "weights": [-0.35400102975470427, -0.32248436462357505, 0.2772282710389375, -0.08950843561107025, 0.38488395512352475, -2.119944005266273, -0.0018927047645001733, -1.428315352496007, -0.4810435333970096, -0.10360758564334778, 0.1659577790543361, 0.17843387895541288, -0.5813631702102107, 0.09294366931286141, 0.11248132435470679, -0.12373142542411542, -0.45541993812740217, -0.4580453513258998, 0.13635544784348314, -1.7935352139162677, 0.1650981543095551, 0.02888038659391887, -0.47953315772166477, -0.15201739406652884, -1.4002043163561642, -0.06317645799432448, -0.539669729377857, -0.40751505188646425, -0.08890616658731863, -1.0960853182933143, -0.5346168818417012, 0.10314870162671075]
        },
        {
          "bias": 0.06298753117639364,
          "weights": [-0.07268302131570188, -0.6395848724935698, -0.16073568198664687, 0.26002685666959235, -0.21819486225155668, 0.31267432046659605, -0.5012704260218012, -0.08351889312154503, -0.11283886169716065, -0.5779851522794867, -0.2562803820763983, -0.05767785196780293, -0.14285574296833406, -0.22818968710859272, -0.4456957299342326, -0.21983012663451415, 0.1236100139350397, -0.0928214908120083, -0.013910321297018214, 0.27396449039383486, -0.1309255068649334, -0.5383478119147704, 0.16655510873524465, -0.22265035255848833, 0.4588048784949319, 0.10030535263488187, 0.7566217527783816, -0.26848224946215427, 0.32153505948151817, 0.6429916566036452, -0.05483689961209372, 0.2664715007099297]
        },
        {
          "bias": -0.2983744682436093,
          "weights": [-0.548014997300509, -0.2421920719336601, -1.6100810944660113, 0.3688544597830755, -0.43689875545161894, -0.007853404626063962, -1.1994217123344058, -0.16002360210186262, 0.4150111985244204, 0.07550067700934518, -0.6711388893949979, -0.7865610737956898, -0.683744254884204, -1.0696525914332076, -1.428571642916641, -0.13750729910981535, -0.23444258748331692, 0.20783266904015688, 0.4777610221008036, 0.22227349493745344, -0.5866281265645632, -0.9860015035070954, 0.11588650357999232, -1.734012726865008, 0.4699411146193772, -0.3284995215982828, -0.036731795925350495, -0.20186948848361103, -0.2589706686182225, 0.03669697285702153, -1.4544184631254722, 0.7209878417151455]
        },
        {
          "bias": -0.24105424726735503,
          "weights": [-0.9286977469520928, -0.12342710388090995, -1.2608350224646083, -0.19955277044105924, -0.9126293596014924, 0.19909806323013096, -0.4862642090648977, -0.5157903554147297, 0.4256365150975514, -0.38292291092516895, -0.9573104710274487, -1.1658395177843328, -0.8222667434694042, -1.2564463409587907, -1.1384105752668359, 0.3966450988567369, -0.2542737590499615, -0.5294619413797889, -0.25867904196414254, 0.05480491105796985, -0.7775787712146097, -1.1468160891531993, 0.564527710890523, -1.4129612527717956, 0.07403338998561797, 0.962843782487801, -0.04037267335619655, -0.3641360252217061, -0.09027694552625135, 0.23331440719902755, -0.6404177554362571, 0.2699313247898634]
        },
        {
          "bias": 0.09378301096821652,
          "weights": [0.01470348780859836, -0.010472785448518903, -0.5897711521249629, -2.4719289374791504, -0.6688657939678342, -0.7266686442381303, -0.034827112228389495, -0.32194641689998904, 0.2958173075410521, -0.872345621688055, -0.8880626277493401, -0.6863231504135485, 0.4176838718859183, 0.1384837787357436, 0.03209726456628662, -0.19014396700944086, -0.679358552832013, -0.19611267233210072, -0.6666909450959789, -1.0513396778132809, -0.528745655359712, 0.21417474024243605, -0.4111583961123886, 0.15098980175028226, -1.0178018157580118, -1.5992510860928326, -0.4247835320150764, -1.1041422300307517, -0.4078197460800353, -0.029629864839941535, 0.18377881419448616, -0.040712420161031916]
        },
        {
          "bias": 0.15456165475435968,
          "weights": [-0.24152953053353945, -0.18242280254553925, 0.30360495309378194, -1.4401842116319983, -0.3705688573984921, -1.604218178764167, 0.14611837983760378, -1.1680720442802184, 0.10597798988618358, -0.5794393168908716, -0.7569440006101075, 0.3118937918850208, -0.2563001179466288, -0.19177533117440987, 0.5739697780022792, 0.3994153088237055, -0.9046143131720377, -0.04228179473506653, 0.19065731573798111, -0.959462010789536, -0.05031896932144102, -0.12300282822727406, -0.10730966988702521, -0.7339228955778366, -1.3665295355515925, -2.240123785287705, 0.10888589992376033, -0.9540051680540879, -0.07980823084591308, -0.405855526244419, 0.16826407369106722, -0.5470745324929143]
        },
        {
          "bias": 0.26417200743256286,
          "weights": [-0.10383663712774202, -0.19172710412443103, -0.8571102960200057, -1.6248873867211586, 0.22387572149429794, -0.004503112762086331, -0.014155316507296845, -0.8045842775688739, 0.021110073317049692, -0.0016755467953551487, 0.21572999300833665, -0.40124710709661904, 0.13314954017123357, -0.08313471097168171, -0.3249482563846429, -0.23468253285653898, -1.0078316566806884, -0.2587030432304124, -1.871423895155309, -0.3863613170876237, 0.28787430547165344, 0.20034340256675293, -0.17331339400978127, 0.15150009220585034, -0.45065265100571156, -2.7426465064874668, -0.17347965696463488, -0.06360623701931635, -0.7920173225630512, -0.35947605127542054, 0.30556480090671595, -0.17809069182131546]
        },
        {
          "bias": 0.15979517093910292,
          "weights": [-0.8226456951994431, -1.9274679603509703, -1.4485226366385442, -0.1041981038349448, -0.8778657802619119, 0.016369069051403347, -0.6009007064875083, 0.33402450501546954, 0.10929410294989558, -0.05541862433629418, -0.6440403944913397, -1.5284558177024832, -0.1803854441621644, -0.6267881627680443, -1.2203937576965946, -0.48532214314512717, 0.0029550144041849986, -0.15897720545189328, -0.11589750930282945, 0.03206707584069975, -1.3385384966661098, -1.5969665357750873, -0.11303588307832457, -0.4879496219176549, 0.2340161401157035, -0.03741099031496679, 0.18791552665976646, -0.1243443146715062, -0.14730278071616998, 0.1732366457499105, -0.1089830581941283, 0.19996528575636652]
        },
        {
          "bias": -0.0808853313604111,
          "weights": [-0.03793705523160473, -0.34235104978562475, -0.2539016638094051, -0.11778191440541576, -0.0421663660202472, -0.34249934931911347, -0.853105721350901, 1.6455288395166678, -0.311333375305111, -0.5348829602744017, 0.05352106165810458, -0.09218593962647495, -0.1551034641793101, -0.21253763907956974, -0.432555625517358, -0.05155785600696743, -0.03487257713919489, 0.10376671976002516, -0.06890208660329987, -0.5029603830466972, 0.05976235246778962, -0.08410771530757723, 0.0830613591515542, -0.10910707787423977, -0.9178868282341216, -0.0630355150032685, -0.22542140624261003, -0.48383091962347996, -0.10602913610861252, 0.06996445394783063, -0.8441873653385511, 0.2571766746604228]
        },
        {
          "bias": -0.33368688837597704,
          "weights": [-0.33100851102736795, -0.30514746088686323, -0.1714162999340411, -0.6182979014069693, 0.02290280675988888, -0.3252184569211543, 0.9534317599033632, -0.5553733688146993, 0.32975605904835165, -0.746315479735811, -0.3515429189080846, 0.05604047505237711, -0.3143209109709824, 0.022781246835565337, -0.10729061153286519, 0.4995153690641528, -0.5191878447565982, 0.3932847302391273, -0.8802942827153786, -0.49303455700094356, 0.18078426396144262, -0.37538556731768463, -0.5855642618612815, -0.227516023145312, -0.5346624874690836, -0.7002154544016347, 0.3089290622075238, -0.9446003541170293, 0.09346887614653299, -0.24828334260336432, -0.12683851347005212, -0.29573235830985606]
        },
        {
          "bias": 0.06640908461791879,
          "weights": [0.14211423137279483, -1.107782326316253, -0.5591675253068749, 0.054922322304439435, -0.7934154555550017, -0.33058211565551227, 0.759812621054694, 0.03703216205866249, -0.06193444004774824, -0.8170888078170119, -0.08431062836301492, -0.31815526403780775, -0.5210538745028308, 0.23629860584417453, -0.7564473340852086, -0.6187509245924742, 0.03931985564677668, -0.9180942334240921, -0.026124708465402952, -0.32201151248570503, 0.25838282559135306, -0.5706243154876515, 0.02819460224663458, 1.0964510094586257, -0.08767047886509262, 0.04548453317729229, -0.9820324557457758, -0.2934723656406822, -0.6554533686540401, -0.49267152147193666, 0.19832093536843015, -0.39733418555049593]
        },
        {
          "bias": -0.3155757522051397,
          "weights": [0.07362402147460896, -0.0717031259944208, 0.14357936919389505, 0.10395993095104213, -0.06454680838108631, -0.30708022698169735, 0.45846545704750863, 0.029353127785351728, -0.29999982714973944, -0.06521419362438008, 0.02844555480271776, 0.15960127927145634, 0.15700913920176104, 0.6877274099605359, 0.33799275067235574, 0.10455004986560026, 0.12907870322340798, 0.4961922497889054, 0.41795547249748183, -0.3227285326853129, -0.007271645983896096, 0.26847250247486254, -0.22429711302744965, 0.14966799106284248, -0.21162712907299638, 0.021373695360549706, -1.3320980361366928, -0.5405935100942237, -0.1218738980250309, -0.8853476220748402, -0.017231041852115044, -1.6363959553507896]
        },
        {
          "bias": -0.5927547611600336,
          "weights": [0.28556104668751753, 0.49343710259622925, 0.2707392807802678, 0.09478395008060354, 0.15857284232924887, -0.8952724241912308, 0.3937724530952073, -0.036879185777155335, 0.3470416170856349, -0.7138787540793096, 0.24058450293730363, 0.4115388508850533, 0.5486679597176742, 0.5917551730609184, 0.43255581401882737, 0.07515646098293281, -0.24935122705806995, -0.4312158797617501, -0.17805604448466056, -0.5840069169078314, 0.17228666562260186, 0.16199685917357803, -0.591622320974144, 0.14075394254791193, -0.3727230000422874, 0.18766216088999393, -0.3029618681906269, -0.9891181700236665, -0.1187260136596979, -0.2547205819395867, 0.5277226776497856, -0.21374143340619015]
        },
        {
          "bias": 0.08931235994581982,
          "weights": [-0.21341694544641548, -1.3235898977202536, 0.2564699058777443, -0.48249688805108626, -0.12634224458381807, -0.22235881062840893, -0.1615471855461349, -0.0556573296185728, 0.08928238262296788, -0.06813792756778342, 0.28249475823039477, 0.05603074424082547, -3.1335453194964127, -0.055349175389357665, 0.40224071770310005, 0.12475773114286849, -0.23597412600604423, -1.9069064767637571, -0.052725145277385886, -0.49945568895467907, -0.3048879045620092, -0.007046867171532111, -0.17468923166363606, -0.30589692185308354, -0.2361815715045395, -0.6353901208303192, -0.0808109234739137, -0.06499156708340856, -1.3565762026389605, -0.8364011978244241, -0.1361576852159773, -0.6917327714988517]
        },
        {
          "bias": 0.1180507651101131,
          "weights": [-0.41093770102875005, -1.7096372650931575, -0.4827399538007179, 0.24306824163112026, -0.5024627668114594, 0.551040631469598, -0.9836212487171713, 0.19957572020277323, 0.2348285835995659, 0.27483967291841194, -0.6621193036369531, -0.4450404423001357, -0.5365345719539786, -1.3408488630354922, -0.4713264005644293, 0.0033126879167464855, 0.23459671709668142, -0.8392564646458485, 0.12525482595517307, 0.6921301978023631, -0.28197340996883086, -1.3047037236527075, -0.3242876394605461, -0.7246266072262624, 0.8795663723921302, 0.14655864696344795, 1.370114400228898, -0.22704338611676994, -0.5447180309142975, 0.7773498098245781, -0.4195953616115829, 0.8139897797518907]
        },
        {
          "bias": 0.0716828422516527,
          "weights": [0.007297732920585793, -1.3803302001205453, -0.1904998567487496, 0.0670821233011782, -0.1663010264279374, 0.41130227242222817, -1.6351421472163683, 0.20537604080520594, -0.15580521163786534, -0.3517785765085268, -0.37753653785083685, -0.1250743220643442, -0.12480935800345096, -0.2521515893744674, -0.6547761393150888, -0.19799102285686873, 0.088351788369466, -0.6305670338691459, 0.23909866636206803, 0.41222363954233, -0.06914057202167603, -0.5439414373103167, -0.32976403969309154, -0.09067141923293581, 0.2155758197371629, 0.13453662555144139, 0.4556720288305724, 0.006354292218001624, -0.019224823732143202, 0.4508830064507381, -1.1159787840770188, 0.6767595811990941]
        },
        {
          "bias": 0.03624054449695545,
          "weights": [-0.41568387546369423, 0.41179181116025454, 0.12966875391791094, -1.9826630537943013, -0.7040220658220693, 0.07651331408691239, 0.15763201897990323, -1.0235572067929346, -0.23809589247253066, -0.9897815538171629, -0.36928668743683807, -0.030567122681398128, -0.45415350538972876, -0.0741427745960258, 0.7145684831232826, -0.11502909185556111, -1.1004457813999544, -0.045836785894517666, -0.48877304993491477, 0.16012159433861262, -0.3053776621207202, -0.8372588928284578, -0.9919734204817912, -0.3372779284551633, -0.5948468895718091, -1.164325118489759, -0.30185424879057615, -0.9951905002561665, 0.15061534002016855, -0.1519579544196488, -0.05041533501895856, 0.04460069137704017]
        },
        {
          "bias": 0.17796529655999918,
          "weights": [-0.14900747863722616, -1.5604288364112548, 0.3860759832045743, -2.626367756867986, -0.029268378527115266, -0.49901978370993194, -0.17218006096591654, -0.026999315162923965, -0.009527578708206294, 0.061473523701782704, -0.053453318021316476, 0.1619562268600178, -1.7100036644382897, -0.022393346303780152, 0.22065703357568617, 0.11942953145465238, -0.3073526528801057, -2.450154020056409, -0.11498353583215397, -1.5754933011912828, -0.1494156783023213, -0.06868275601675207, -0.006962606716011832, 0.29771669614733404, -0.20262652340630585, -3.204272064324336, -0.3261781596650983, 0.21824494952381643, -0.8568246710505439, -0.5738485272902586, 0.3190109308963905, 0.38600840688247]
        },
        {
          "bias": 0.21583728503926766,
          "weights": [-0.5743106850588429, -0.03113656789420919, -0.603569604677838, -0.2695880783344921, -0.38801442599229974, -0.396128774646889, 0.04551170015616836, -0.04052663188845607, 0.11791414668655839, -0.38248338525013176, -2.3838510548887117, -2.1055701525841264, -0.3574548513502293, 0.15377155945975582, 0.1596136851926751, 0.034640921504330346, -0.4298410999312795, 0.11711138167742235, -0.2898565673896519, -0.10455542127446042, 0.19591498294646387, -0.5066625736882652, -0.4261163063015735, -0.9824255357520997, -0.12709000391068845, -0.4323524626175156, -0.3432631609571869, -0.2626908853606654, -0.2015679042546486, -0.06576647405489779, 0.18125752095029726, 0.1000588682405957]
        },
        {
          "bias": 0.1305445504675229,
          "weights": [-0.08291499481490898, 0.08349695923408895, -0.5425047577397748, -2.6975537355434818, -0.15903917380137036, -0.2742918809802905, -0.6047800714322962, -0.3636167373741955, -0.13290386923558198, 0.18064256790602773, 0.04380982891056127, -0.6323789801524954, 0.022871902352017255, 0.08766494697356829, -1.276164422660326, -0.5498835480842655, 0.26472550537624023, 0.06294851478930603, -0.06992086026701581, 0.575055182159595, -0.11963892526088042, 0.039121101738618186, -0.8222748474908225, 0.08463134872838467, 1.103546602834799, -0.08517570747994019, -0.6013784133681296, 0.3758613862242818, -0.0629226246299869, -0.7126523441360147, -0.6127275161020661, -0.33652203679620446]
        },
        {
          "bias": 0.06493466566065419,
          "weights": [-0.5989790863515246, -1.6905627027985357, 0.20214773309921508, -0.045055060116373995, -0.1272408831527771, 0.06601038022137597, -0.8167870853632229, 0.07728784238854518, -0.03626783354108391, -0.06700638272697691, -0.1487627643773159, -0.030427578254056793, -1.6440397829639273, -0.7770376165498053, 0.10674463526785417, 0.24604912897081505, 0.2483723807577934, -1.4773036804775872, -0.010696069152889594, 0.1554948592579735, -0.2864543943554429, -2.0358814657448003, -0.22504275553791953, -1.5974896464531159, 0.17487919164085322, -0.007596195783410667, 0.3097710208289438, -0.3546425531426091, -0.4585017908500602, 0.22185648265733535, -0.4660171313476745, -0.4629176959253386]
        },
        {
          "bias": 0.08036230783415606,
          "weights": [-0.7681873207499591, 0.1288516843291679, 0.043393622100274296, -0.7739736875132028, -0.4299053682959644, -0.720242780011565, -0.5999182035126636, -0.3792677137090754, -2.711512801586187, 0.04956764033251371, -0.059476468295469286, -0.05048202465895145, -0.08809814061637122, -0.839843228931127, -0.537364282656338, -1.7400483694389257, -0.5352761462023222, 0.1586606887970292, -3.0065690625345027, -0.07270707683445542, -0.4599574315587408, -0.3088283906048424, -0.3468265213449933, 0.02646949488166239, -0.2589225835691926, -1.599362120440646, -0.16085657241755927, 0.23189541051473064, 0.13523933529274867, -0.04620557645586843, -0.7446069322849068, -0.8160289463187285]
        },
        {
          "bias": 0.11442019684029789,
          "weights": [0.25032251974213865, -1.4497628685794013, 0.1951897735460931, 0.03430817210527765, 0.2148909124311983, -2.68985144188297, 0.0795216961213372, -1.0574839814246275, -1.3003161511712904, -0.10469982018765316, 0.15876837686538323, 0.29351734550068653, -0.13746076695994033, 0.28065430322705887, -0.7985180111010797, -0.17303193766125557, -0.4382368391533642, -2.1403252031715416, 0.07135221019674674, -2.080294401071214, 0.26053746721306487, 0.35172972190599433, -0.517765235717133, 0.19949416347757387, -1.1734025711735692, -0.009366301861471332, -0.7800696775219614, -0.3923826771575441, -1.465502882441557, -1.6766691560505962, -1.9741074745517875, -0.20274592222653898]
        },
        {
          "bias": 0.12066698550395813,
          "weights": [0.006755671486197383, -1.4584376379710084, -0.8061452789866811, -0.2074958926018341, -0.05149284212476439, -1.431391921114679, 0.19668522123752083, -0.11105576350343983, 0.19132093396277472, 0.006196958834159941, 0.06936886671278567, 0.18946183196307856, 0.06576330457067389, -0.4350848671309073, -1.1293465072779094, -1.1698590557254196, -0.8218364393682294, -1.2790421892470472, -2.5626460186424977, -0.5515510686896596, -0.025521896228196728, 0.06273723555633104, -0.05681803234555041, 0.26734361572444953, -0.20445420648129148, -0.426779163697316, -1.0734007541966177, 0.17452315026463794, -1.1238816708035468, -0.3549698855742322, 0.17087720545147406, 0.14280034839185746]
        },
        {
          "bias": 0.17072260320236113,
          "weights": [-0.08592579127841096, -1.2141986321254776, -1.519224702610471, -0.3320490189480696, -0.3108381346930202, 0.3036571297363096, -1.076925993858652, -0.0735880310040018, -0.3482175919406938, -0.04977241391365234, -0.17815911289777872, -1.0559012842460693, 0.2299496831312566, -0.30708555848198293, -0.8622045887385392, -0.5071090662427874, -0.18168791097995388, -0.9497704166081719, -0.5298244818319777, 0.07574480590276413, -0.1874770566773054, 0.048773401903310254, 0.35994903013675295, 0.12077385700585334, 0.7584708143403871, -0.478273798465829, 0.39568843087698696, 0.17890758291541836, -2.117610772451868, 0.35760626182890165, -1.0842553708793374, -0.22523084580839173]
        },
        {
          "bias": 0.09109146226984427,
          "weights": [0.20307856526017456, -1.136518550563165, 0.3917243429862356, 0.05273740113011165, 0.2892358763645723, -0.8186233096626462, -0.7337788533184955, -0.14831220026206415, -0.18576819327138355, -0.22380996331187233, 0.2607321155566271, 0.11986971304791046, -0.28986782801447225, 0.824666575540212, 0.3699228164006789, 0.22165716994813753, 0.046268608386568266, -1.6216220036293891, -0.019991942874739908, -1.0995785798114988, 0.05508873705641496, 0.3821507980356176, -0.8612783184408935, -0.02888322657900162, -0.43002157361047855, 0.005137949976360508, -1.806020538746204, -0.06518894853804126, -1.186364319367248, -1.9090169666767907, -0.31846432907524896, -1.0830875909622102]
        },
        {
          "bias": 0.12844751405415558,
          "weights": [0.1230885369754557, -1.3276314157705509, -0.7247055940064191, -0.14288719575352746, 0.3054275136067802, -0.9549783633655734, 0.06273216075672063, -0.43889333678645953, -0.3218022790265416, 0.02470039120816744, -0.10299837235039928, -0.4671307304589983, 0.32764268309454786, 0.3105829019862449, -0.33388208496732974, -2.0160448890025573, -0.9341537889413791, -1.1670430097549538, -0.12255071551008334, -1.5092001251370688, 0.03520858453290539, 0.35817119127959796, -0.553703173006533, 0.13088746632565446, -0.7753380669315115, -0.0455203735737948, -0.2127837717575472, 0.023012490061637553, -2.0015076937781915, -0.8852978839484806, -0.28284905514345265, -0.696173566186513]
        },
        {
          "bias": 0.23888047833184303,
          "weights": [0.015648743856139766, -1.0236291711080996, -0.5329630259536949, -0.3300197399471643, -0.28274232370935404, -0.854676974461725, 0.9301144601177755, 0.08820209359646919, 0.04189943755118568, -0.045823424727990704, 0.031030317790825768, -1.2798860313671327, 0.6646754189933495, -0.24068111657114416, -0.5003398172661824, -0.3999410205633245, -0.847742433042343, -0.9506835756536018, -2.1923381380555598, -1.1040999034120493, -0.33429907142544785, 0.12539022266994454, -0.038593463717127796, -0.39797540085951716, -0.4496992699588175, -0.6075593062932468, 0.13480552155065656, -0.20143068123454091, -0.6729409354431644, -0.6142048968419838, 0.2284515925422405, -0.3200320186845242]
        }
      ]
    },
    {
      "neurons": [
        {
          "bias": 0.12488207572323526,
          "weights": [-0.2528653633942539, 0.23016122628577043, -0.39720849636214234, 0.27190346921567904, 0.04242870402109386, -0.7259990021277453, -0.6603427850179875, -1.1849929610699732, 0.3186488426360672, -0.044958348588627906, -0.20169956076495213, -1.013430588663319, -1.1914442554829319, 0.08348875945061873, 0.012425802846524753, 0.19267600069634155, 0.25294362870088205, 0.05895181586365314, -2.147763694747389, -1.0290211909478615, 0.04636254393380539, -0.4534671955381886, -0.6710470289274951, 0.18445858304827262, 0.029743325201708897, -0.08875719255244643, -0.0656674207609342, -0.16854861172202318, -0.37098112770070185, 0.23707663380933303, 0.12056747669700799, -0.24604464096810355]
        },
        {
          "bias": 0.2022777817440667,
          "weights": [-0.8632313764331978, 0.1483587607520538, 0.2852031597600324, 0.024805798388132242, 0.034049325896306215, -0.058402799526576274, -0.18166828337852903, -0.2997773869970996, 1.0400271910552947, 0.25441541074904933, 0.4092223239059758, 0.37761421544918927, -0.15453997527550056, -0.005971939559933318, -0.4393111356966252, -0.1491873926141366, -0.13511347235563484, -0.23640277385290928, -0.035871008374962356, -0.11399136145477118, 0.11930018297228316, -0.5472585818821935, 0.6809085558860636, -0.18068632253277628, -0.18738955479299238, -0.4343920837809598, -0.2617458670540257, -0.7279004232162687, -0.06762554467665707, -0.5628329020526355, -0.29496532706668976, -0.738240795575791]
        },
        {
          "bias": 0.06885435850317673,
          "weights": [-0.6904397619659738, -0.9174669043652681, -0.1999747519106536, -0.7744685827141201, -0.30089111119941325, -0.07135297198406769, 0.07480651342967794, 0.15240754525538072, -0.4029680605486442, -0.7830694113144324, -0.6914466875023491, 0.21127762452861623, -0.15837674005868743, 0.03088992563580273, -0.2718655410983454, -0.12164813348956677, -0.5683509403113356, -0.9255436124457711, -1.150850020985457, 0.3961182812936788, -0.6882652217493179, -0.9987835483948108, -0.2256599762786647, -0.2530933112943018, 0.2410198442284473, -0.43880940816994884, -0.6085252142273244, -1.0417912740921924, -0.13355685402629638, -0.358717549634505, -0.22664826201818006, -0.31052655537064106]
        },
        {
          "bias": 0.0719740223474925,
          "weights": [-0.7523145123316405, -0.869804881208135, 0.13403536252490622, -0.3769082540209666, -0.4831205320293708, 0.04509887380051108, 0.1315518454225369, 0.2370800473556403, -0.06734787632839408, -0.20518297663761056, -0.573261020511043, 0.11959611781112633, 0.3885006979156992, -0.6155053675836366, -0.14268520025737058, -0.12402142309242324, 0.016622996320890884, -0.411368486664532, 0.1204598896215984, 0.08400633471780425, -0.6556026411517423, -0.510597504336999, -0.24892515328539513, -0.04538184745837729, 0.025678616539371694, -0.866500563795427, -0.9436515242310668, -0.23058711481405897, 0.2760520709136787, -0.30022231023901064, -0.8303664547443389, 0.07002134868698012]
        },
        {
          "bias": 0.00635747586092194,
          "weights": [-0.43576382907876976, -0.3160709279229294, 0.0847312489704269, -0.4984190855385255, -1.4062167293672314, 0.1440877677714239, 0.1443489798849961, 0.06206019138766521, -0.7194071857421587, -0.8311271846416924, 0.20045531471950406, 0.05617782696744688, 0.42928187160064746, 0.032960525794100005, -0.8413820718588433, -0.08237071799958398, -0.35662749499674945, -0.21612678395507195, 0.09573807939460689, 0.05814017669371822, -0.1950068392268531, 0.014195417515286468, -0.7974938522625967, 0.1264221284119781, 0.14767306831651444, -0.9426515220526039, -1.9520533947516636, 0.008935602016248925, 0.4322540030397804, -0.18446086328839306, -0.9054246363311765, -0.8289040360947778]
        },
        {
          "bias": 0.18744127002899336,
          "weights": [0.10980503385107375, 0.05855829343220189, -0.36804616764770237, 0.01567915387765163, 0.08885838950434685, -0.009205145277868943, -0.3884518727951866, -0.9269169063467818, -0.3528013652649357, 0.2817102856739322, -0.3332787986249495, -0.08539673851895559, -0.4034008390597779, 0.19780188006064156, 0.15865325389169033, 0.11783613482595309, 0.1426332418564855, -0.6900438874204701, -0.2327561863911632, -0.1271073929738918, 0.2208805311052826, -0.5901873846302234, -0.03252511436566803, -0.358177748140101, -0.4983925084653332, -0.2156080639836566, 0.14254610731813097, 0.1218717081497924, 0.4411080179844421, 0.04155875393529629, 0.5922990655877504, 0.5797071547516184]
        },
        {
          "bias": 0.20615945734132524,
          "weights": [0.16184273712343583, 0.07715159086611176, -0.3174236017128377, 0.3943223524328067, 0.00703177323113959, 0.032258533517083146, -0.19983198696240376, -0.17000044424797725, -0.12980091797499027, -0.08530427203560229, -0.37582617769470444, 0.02937043079261504, 0.11744310728303972, 0.11306930863289559, 0.5405338474813746, -0.24967684636586254, 0.1018781677526999, -0.0015272632748776615, -0.0656417709731784, -0.04022397488762219, -0.00909124047771502, -0.016158394934632444, 0.4307005495456036, -0.1575852662591894, -0.4039069659682616, 0.22994813155837918, 0.4551980606103273, 0.3609877323680184, -0.1750527852852861, -0.32858870630511317, -0.4884947463067149, 0.12330852236805176]
        },
        {
          "bias": 0.1956928168281693,
          "weights": [-0.7786134275063026, 0.16266526979101223, 0.04233093503978798, 0.02120279368614403, -0.36808887633789855, -0.5905302987969542, -0.9124817777201628, -0.7253224899554563, 0.31706453266525203, -0.022868502602849578, 0.8467245915568544, -0.3200248749747085, -0.45771868578436786, -0.3378787495304227, -0.47287925389866886, -0.2151737058013588, -0.514846200575378, 0.2618138209019328, -0.08253220595187842, -0.7549108185281194, -0.5176517031231065, 0.2847006397249641, 0.1816597637564565, 0.05312653146514767, -0.07762879304275092, -0.1037373154113615, -0.7751448097320108, -0.8220615252238491, -0.4618498056977596, -0.14084690281537252, -0.5635753475384988, -0.36082227233237407]
        },
        {
          "bias": -0.14465641551699637,
          "weights": [-0.11483256790438771, -0.19127281397689155, 0.12504991235153415, -0.13239393192683416, -0.2613718824330812, -0.21329115953370303, -0.056571480139713165, 0.002897343561237419, 0.0053390688715102205, 0.010390047103887464, -0.5015981629202495, -0.09806674902980403, 0.07149665653282657, -0.25582265904273144, -0.16311330919612335, 0.15212266052013906, 0.035095178860703256, 0.08107964006084016, 0.5893747053225045, -0.21377762654903026, -0.3076258137704551, 0.49234046106935825, -0.06343922941275598, 0.1547195489201001, -0.0856374723390315, -0.13990748413805026, -0.28451447145500136, -0.5261605915250476, -0.33885193691571425, 0.16273450550089608, -0.8752368856108067, -0.16606262889691756]
        },
        {
          "bias": 0.23346051432665876,
          "weights": [-0.09699034311741704, -0.07998285362724059, -1.1857628267570068, -0.4152876800883798, 0.025526784339794807, -0.8733136570436437, -0.5064121283866423, -0.6547718040894643, -0.4774172236799031, -0.45691319441850586, 0.12937961584144214, -0.47073556018023954, -0.6713375734452222, -0.3624316508536414, 0.2901754781339817, -0.35244639451052096, -0.10974854616301608, -0.012348399383930635, -1.3445054964299126, -1.138046135448512, -0.21611694315696506, 0.3581625849651379, -0.3193732095830083, -0.9582936849804604, -1.012624500567805, -0.18365575879188328, -0.10050039623899172, 0.6753079154066101, 1.0696690637980308, -0.046118378137230846, 0.3396382152424566, 0.8242469307014507]
        },
        {
          "bias": -0.1553377371076063,
          "weights": [-0.49880363928129423, -0.4033011430366772, 0.7325152699006148, -0.4438060322820184, -0.030089817946686883, 0.7929189412647726, -0.08579298206754668, -0.3112722186588893, -0.3366550705608172, -0.4935786481061651, -0.3259988157506887, 0.009047163858356208, 0.45459792568781765, -0.12954815997813413, 0.0037105590896444655, -0.12327712094259134, -1.1149171494878676, 0.11006811567292545, -1.2396263198022477, -0.5170744585187435, -0.4630368873193792, -0.19329225605592473, 0.09668203116010636, 0.2314140794168458, -0.1780811419319836, -0.9848222429512526, -0.19052005717511195, -0.2714384285934644, -0.23665019929628558, -0.14654264453310523, -0.39854140519537123, -0.5766892244753055]
        },
        {
          "bias": 0.2794851272760718,
          "weights": [-0.12580707441662065, -0.6672512368413466, 0.21558437532830937, -0.08794323254048002, 0.3788962755710751, -0.7377660140391905, -0.30942739569490557, -0.7563963571399617, 0.03091739253066468, 0.41759734953977046, -0.41377165443914404, -0.16760153959778662, -0.39635917061645515, -0.3466487258945971, -0.11376905515993688, -0.24144493814943874, -0.2106784654827341, -1.547166791444523, -0.5866683090656019, -1.462290144548177, -0.21366183257214738, -0.3512609461079313, 0.12411837102565257, -0.7228169245812244, -1.950968033885479, -0.8306107631403253, -1.0009543074943068, -0.007707651115397758, 0.08006168941174278, -1.7557034552055086, -0.4057253082373217, 0.10694766087234285]
        },
        {
          "bias": -0.3516109838408014,
          "weights": [-0.13108452664907105, 2.1716138075170756E-4, 0.07823785175566716, 0.014905595435220097, 0.01788837999354731, -0.5596527239589983, -0.3690070632332836, 0.1002267123064885, -0.3500500227207605, -0.08884053715248583, -0.2463233318682581, -0.27992393160007734, -0.10996629447396992, 0.2507025123212987, 0.0653522921779831, -0.25432786873903035, -0.2851946618260546, -0.13382755000194185, -0.4252427828420892, -0.22939727076418884, -0.15303118793794646, 0.19351203516869706, 0.19545385259079523, -0.017622734885784114, -0.14624736872898994, 0.04840872789234526, -0.24751356597434715, -0.5580749673658688, -0.10690799513500451, 0.03274992912602807, 0.10936861351375735, 0.00857920968026792]
        },
        {
          "bias": 0.13888750443663134,
          "weights": [-1.1884353212281549, -0.3336600925887697, -0.17342129119062544, -0.5720440274785321, -2.6125576056190387, 0.10558245480964557, 0.09154195054229423, 0.08860372632472022, -0.9539479197605425, -1.2504127663865503, -1.0279672374399238, 0.2108772041850199, 0.2208387918613803, -0.6165069209895752, -0.07906361148687426, -0.24865734345649562, 0.11517095816923563, -0.44392242809794213, 0.11833209477228905, 0.07619495830306879, -0.9154583861261717, 0.022987815421995697, -1.161945554375671, 0.02454448162232104, -0.040806585891189746, -1.7850399076165295, -1.9369046477565377, -0.4108726171991873, 0.3095727908202456, -1.3022097395339434, -0.2549683425268353, -0.8240551358886413]
        },
        {
          "bias": 0.044547490597584956,
          "weights": [-0.9794580675471254, -0.2144578706869191, 0.3013710326832788, -0.4568239591921892, 0.1975388550654489, -0.04732773119368324, -0.1153795035560187, -0.05076275153676695, -0.753172280989672, 0.1820849997542287, -0.1686775953747797, -0.3442904928065058, -0.03429892491886043, 0.07750567774862552, -0.3797045626870958, -0.02070435297690232, -0.12684069114076016, 0.2832459194246888, -0.020332724474599207, -0.0015539544091843743, -1.64886204944738, 0.9554538348500635, -0.24597689945598664, -1.875389906648016, 0.23240371989520733, -0.23981427632684338, -0.19309561639002978, 0.05209613180283826, -0.4244848072008419, 0.08590496795754245, -0.2569827139624178, -0.6493477106405972]
        },
        {
          "bias": 0.11325792839462373,
          "weights": [-0.1512984109479357, -0.19026619484968513, -0.13583874633790963, -0.30702321458066234, -0.00940820960956171, -0.27108660477384683, -0.34504810717765894, -0.20754502028685473, -0.8395799132395494, 0.10638587920053874, 0.4482906915214313, -0.8657547836549948, -0.7062724974192486, 0.043756445595481794, -0.2022696391520033, -0.18630316387946366, -0.11273375953648343, 0.6879311296635844, -0.12814900809564211, -0.3771079582854416, -0.1640603993209687, 0.7273135755633285, -0.6742725460395361, 0.1407282855066052, 0.14913634825895336, 0.13523006680744115, 0.549622449383897, 0.10828716268398388, -0.3417294985732086, 0.010207708472750206, -0.1655534275663438, -0.31741127032247873]
        }
      ]
    },
    {
      "neurons": [
        {
          "bias": -0.004064583323837654,
          "weights": [0.051649115828542855, -0.0816853377859402, 0.007678132829702722, 0.0012973347874525203, 0.016045851426452897, -0.03708613955886182, -0.06664009018965202, 0.07072905747244165, 0.008935066487665008, 0.04944892698159342, 2.123274902729462E-4, -0.4353774304028753, 0.7686737258361372, -0.008300120540789699, 0.16159207993890318, 0.2262032134490872]
        },
        {
          "bias": 0.03514563978055456,
          "weights": [0.046246872210537915, 0.14567710032580355, -0.015496820675965977, 0.012407401679334195, -0.0061620280869249654, -0.09018775656886965, -0.011189203513621897, 0.36253537494740534, -0.004778586847608788, -0.32837077716759777, 0.013816237233553729, -0.09501582026982623, -0.1457320338021946, 0.0088204316817424, 0.05624898318763375, -0.04884979395007455]
        },
        {
          "bias": -0.08254528060462081,
          "weights": [0.2040155835561134, 0.08725755039401736, -0.2034466733487108, -0.12612573487731046, -0.12393595277436743, 0.1545540050652839, 0.0637867254762641, 0.01371488800383989, -0.1486060864243375, -0.0094014146724296, -0.1857472214839272, 0.013460692093603602, -0.12249381835661549, -0.12590829094906203, 0.009546584348668717, 0.0973493687323986]
        }
      ]
    }
  ]
}
